digraph Tree {
node [shape=box] ;
0 [label="X[898] <= 0.5\ngini = 0.469\nsamples = 712\nvalue = [444, 268]"] ;
1 [label="X[1] <= 2.5\ngini = 0.386\nsamples = 245\nvalue = [64, 181]"] ;
0 -> 1 [labeldistance=2.5, labelangle=45, headlabel="True"] ;
2 [label="X[1642] <= 0.5\ngini = 0.074\nsamples = 130\nvalue = [5, 125]"] ;
1 -> 2 ;
3 [label="X[952] <= 0.5\ngini = 0.046\nsamples = 128\nvalue = [3, 125]"] ;
2 -> 3 ;
4 [label="X[1649] <= 0.5\ngini = 0.031\nsamples = 127\nvalue = [2, 125]"] ;
3 -> 4 ;
5 [label="X[1059] <= 0.5\ngini = 0.016\nsamples = 126\nvalue = [1, 125]"] ;
4 -> 5 ;
6 [label="gini = 0.0\nsamples = 125\nvalue = [0, 125]"] ;
5 -> 6 ;
7 [label="gini = 0.0\nsamples = 1\nvalue = [1, 0]"] ;
5 -> 7 ;
8 [label="gini = 0.0\nsamples = 1\nvalue = [1, 0]"] ;
4 -> 8 ;
9 [label="gini = 0.0\nsamples = 1\nvalue = [1, 0]"] ;
3 -> 9 ;
10 [label="gini = 0.0\nsamples = 2\nvalue = [2, 0]"] ;
2 -> 10 ;
11 [label="X[5] <= 23.35\ngini = 0.5\nsamples = 115\nvalue = [59, 56]"] ;
1 -> 11 ;
12 [label="X[1729] <= 0.5\ngini = 0.486\nsamples = 94\nvalue = [39, 55]"] ;
11 -> 12 ;
13 [label="X[1092] <= 0.5\ngini = 0.405\nsamples = 39\nvalue = [11, 28]"] ;
12 -> 13 ;
14 [label="X[2] <= 16.5\ngini = 0.368\nsamples = 37\nvalue = [9, 28]"] ;
13 -> 14 ;
15 [label="X[1175] <= 0.5\ngini = 0.278\nsamples = 30\nvalue = [5, 25]"] ;
14 -> 15 ;
16 [label="X[661] <= 0.5\ngini = 0.238\nsamples = 29\nvalue = [4, 25]"] ;
15 -> 16 ;
17 [label="X[1102] <= 0.5\ngini = 0.191\nsamples = 28\nvalue = [3, 25]"] ;
16 -> 17 ;
18 [label="X[1377] <= 0.5\ngini = 0.137\nsamples = 27\nvalue = [2, 25]"] ;
17 -> 18 ;
19 [label="X[106] <= 0.5\ngini = 0.074\nsamples = 26\nvalue = [1, 25]"] ;
18 -> 19 ;
20 [label="gini = 0.0\nsamples = 25\nvalue = [0, 25]"] ;
19 -> 20 ;
21 [label="gini = 0.0\nsamples = 1\nvalue = [1, 0]"] ;
19 -> 21 ;
22 [label="gini = 0.0\nsamples = 1\nvalue = [1, 0]"] ;
18 -> 22 ;
23 [label="gini = 0.0\nsamples = 1\nvalue = [1, 0]"] ;
17 -> 23 ;
24 [label="gini = 0.0\nsamples = 1\nvalue = [1, 0]"] ;
16 -> 24 ;
25 [label="gini = 0.0\nsamples = 1\nvalue = [1, 0]"] ;
15 -> 25 ;
26 [label="X[2] <= 21.5\ngini = 0.49\nsamples = 7\nvalue = [4, 3]"] ;
14 -> 26 ;
27 [label="gini = 0.0\nsamples = 4\nvalue = [4, 0]"] ;
26 -> 27 ;
28 [label="gini = 0.0\nsamples = 3\nvalue = [0, 3]"] ;
26 -> 28 ;
29 [label="gini = 0.0\nsamples = 2\nvalue = [2, 0]"] ;
13 -> 29 ;
30 [label="X[5] <= 7.7\ngini = 0.5\nsamples = 55\nvalue = [28, 27]"] ;
12 -> 30 ;
31 [label="gini = 0.0\nsamples = 4\nvalue = [0, 4]"] ;
30 -> 31 ;
32 [label="X[5] <= 10.825\ngini = 0.495\nsamples = 51\nvalue = [28, 23]"] ;
30 -> 32 ;
33 [label="X[1282] <= 0.5\ngini = 0.428\nsamples = 29\nvalue = [20, 9]"] ;
32 -> 33 ;
34 [label="X[14] <= 0.5\ngini = 0.408\nsamples = 28\nvalue = [20, 8]"] ;
33 -> 34 ;
35 [label="X[31] <= 0.5\ngini = 0.384\nsamples = 27\nvalue = [20, 7]"] ;
34 -> 35 ;
36 [label="X[0] <= 9.0\ngini = 0.355\nsamples = 26\nvalue = [20, 6]"] ;
35 -> 36 ;
37 [label="gini = 0.0\nsamples = 1\nvalue = [0, 1]"] ;
36 -> 37 ;
38 [label="X[596] <= 0.5\ngini = 0.32\nsamples = 25\nvalue = [20, 5]"] ;
36 -> 38 ;
39 [label="X[615] <= 0.5\ngini = 0.278\nsamples = 24\nvalue = [20, 4]"] ;
38 -> 39 ;
40 [label="X[1569] <= 0.5\ngini = 0.227\nsamples = 23\nvalue = [20, 3]"] ;
39 -> 40 ;
41 [label="X[1392] <= 0.5\ngini = 0.165\nsamples = 22\nvalue = [20, 2]"] ;
40 -> 41 ;
42 [label="X[2] <= 54.0\ngini = 0.091\nsamples = 21\nvalue = [20, 1]"] ;
41 -> 42 ;
43 [label="gini = 0.0\nsamples = 20\nvalue = [20, 0]"] ;
42 -> 43 ;
44 [label="gini = 0.0\nsamples = 1\nvalue = [0, 1]"] ;
42 -> 44 ;
45 [label="gini = 0.0\nsamples = 1\nvalue = [0, 1]"] ;
41 -> 45 ;
46 [label="gini = 0.0\nsamples = 1\nvalue = [0, 1]"] ;
40 -> 46 ;
47 [label="gini = 0.0\nsamples = 1\nvalue = [0, 1]"] ;
39 -> 47 ;
48 [label="gini = 0.0\nsamples = 1\nvalue = [0, 1]"] ;
38 -> 48 ;
49 [label="gini = 0.0\nsamples = 1\nvalue = [0, 1]"] ;
35 -> 49 ;
50 [label="gini = 0.0\nsamples = 1\nvalue = [0, 1]"] ;
34 -> 50 ;
51 [label="gini = 0.0\nsamples = 1\nvalue = [0, 1]"] ;
33 -> 51 ;
52 [label="X[1294] <= 0.5\ngini = 0.463\nsamples = 22\nvalue = [8, 14]"] ;
32 -> 52 ;
53 [label="X[3] <= 0.5\ngini = 0.388\nsamples = 19\nvalue = [5, 14]"] ;
52 -> 53 ;
54 [label="gini = 0.0\nsamples = 6\nvalue = [0, 6]"] ;
53 -> 54 ;
55 [label="X[0] <= 62.5\ngini = 0.473\nsamples = 13\nvalue = [5, 8]"] ;
53 -> 55 ;
56 [label="gini = 0.0\nsamples = 2\nvalue = [2, 0]"] ;
55 -> 56 ;
57 [label="X[5] <= 15.175\ngini = 0.397\nsamples = 11\nvalue = [3, 8]"] ;
55 -> 57 ;
58 [label="X[414] <= 0.5\ngini = 0.444\nsamples = 3\nvalue = [2, 1]"] ;
57 -> 58 ;
59 [label="gini = 0.0\nsamples = 2\nvalue = [2, 0]"] ;
58 -> 59 ;
60 [label="gini = 0.0\nsamples = 1\nvalue = [0, 1]"] ;
58 -> 60 ;
61 [label="X[1435] <= 0.5\ngini = 0.219\nsamples = 8\nvalue = [1, 7]"] ;
57 -> 61 ;
62 [label="gini = 0.0\nsamples = 7\nvalue = [0, 7]"] ;
61 -> 62 ;
63 [label="gini = 0.0\nsamples = 1\nvalue = [1, 0]"] ;
61 -> 63 ;
64 [label="gini = 0.0\nsamples = 3\nvalue = [3, 0]"] ;
52 -> 64 ;
65 [label="X[1228] <= 0.5\ngini = 0.091\nsamples = 21\nvalue = [20, 1]"] ;
11 -> 65 ;
66 [label="gini = 0.0\nsamples = 20\nvalue = [20, 0]"] ;
65 -> 66 ;
67 [label="gini = 0.0\nsamples = 1\nvalue = [0, 1]"] ;
65 -> 67 ;
68 [label="X[1] <= 1.5\ngini = 0.303\nsamples = 467\nvalue = [380, 87]"] ;
0 -> 68 [labeldistance=2.5, labelangle=-45, headlabel="False"] ;
69 [label="X[0] <= 187.0\ngini = 0.451\nsamples = 93\nvalue = [61, 32]"] ;
68 -> 69 ;
70 [label="X[1651] <= 0.5\ngini = 0.124\nsamples = 15\nvalue = [14, 1]"] ;
69 -> 70 ;
71 [label="gini = 0.0\nsamples = 14\nvalue = [14, 0]"] ;
70 -> 71 ;
72 [label="gini = 0.0\nsamples = 1\nvalue = [0, 1]"] ;
70 -> 72 ;
73 [label="X[5] <= 26.144\ngini = 0.479\nsamples = 78\nvalue = [47, 31]"] ;
69 -> 73 ;
74 [label="gini = 0.0\nsamples = 7\nvalue = [7, 0]"] ;
73 -> 74 ;
75 [label="X[0] <= 586.0\ngini = 0.492\nsamples = 71\nvalue = [40, 31]"] ;
73 -> 75 ;
76 [label="X[0] <= 235.5\ngini = 0.444\nsamples = 42\nvalue = [28, 14]"] ;
75 -> 76 ;
77 [label="gini = 0.0\nsamples = 2\nvalue = [0, 2]"] ;
76 -> 77 ;
78 [label="X[4] <= 1.5\ngini = 0.42\nsamples = 40\nvalue = [28, 12]"] ;
76 -> 78 ;
79 [label="X[0] <= 486.5\ngini = 0.36\nsamples = 34\nvalue = [26, 8]"] ;
78 -> 79 ;
80 [label="X[0] <= 361.5\ngini = 0.435\nsamples = 25\nvalue = [17, 8]"] ;
79 -> 80 ;
81 [label="X[84] <= 0.5\ngini = 0.26\nsamples = 13\nvalue = [11, 2]"] ;
80 -> 81 ;
82 [label="X[1631] <= 0.5\ngini = 0.153\nsamples = 12\nvalue = [11, 1]"] ;
81 -> 82 ;
83 [label="gini = 0.0\nsamples = 11\nvalue = [11, 0]"] ;
82 -> 83 ;
84 [label="gini = 0.0\nsamples = 1\nvalue = [0, 1]"] ;
82 -> 84 ;
85 [label="gini = 0.0\nsamples = 1\nvalue = [0, 1]"] ;
81 -> 85 ;
86 [label="X[2] <= 23.5\ngini = 0.5\nsamples = 12\nvalue = [6, 6]"] ;
80 -> 86 ;
87 [label="gini = 0.0\nsamples = 2\nvalue = [2, 0]"] ;
86 -> 87 ;
88 [label="X[2] <= 54.0\ngini = 0.48\nsamples = 10\nvalue = [4, 6]"] ;
86 -> 88 ;
89 [label="X[921] <= 0.5\ngini = 0.375\nsamples = 8\nvalue = [2, 6]"] ;
88 -> 89 ;
90 [label="X[1708] <= 0.5\ngini = 0.245\nsamples = 7\nvalue = [1, 6]"] ;
89 -> 90 ;
91 [label="gini = 0.0\nsamples = 6\nvalue = [0, 6]"] ;
90 -> 91 ;
92 [label="gini = 0.0\nsamples = 1\nvalue = [1, 0]"] ;
90 -> 92 ;
93 [label="gini = 0.0\nsamples = 1\nvalue = [1, 0]"] ;
89 -> 93 ;
94 [label="gini = 0.0\nsamples = 2\nvalue = [2, 0]"] ;
88 -> 94 ;
95 [label="gini = 0.0\nsamples = 9\nvalue = [9, 0]"] ;
79 -> 95 ;
96 [label="X[5] <= 181.525\ngini = 0.444\nsamples = 6\nvalue = [2, 4]"] ;
78 -> 96 ;
97 [label="gini = 0.0\nsamples = 4\nvalue = [0, 4]"] ;
96 -> 97 ;
98 [label="gini = 0.0\nsamples = 2\nvalue = [2, 0]"] ;
96 -> 98 ;
99 [label="X[0] <= 741.5\ngini = 0.485\nsamples = 29\nvalue = [12, 17]"] ;
75 -> 99 ;
100 [label="X[2] <= 13.5\ngini = 0.375\nsamples = 20\nvalue = [5, 15]"] ;
99 -> 100 ;
101 [label="X[353] <= 0.5\ngini = 0.444\nsamples = 3\nvalue = [2, 1]"] ;
100 -> 101 ;
102 [label="gini = 0.0\nsamples = 2\nvalue = [2, 0]"] ;
101 -> 102 ;
103 [label="gini = 0.0\nsamples = 1\nvalue = [0, 1]"] ;
101 -> 103 ;
104 [label="X[982] <= 0.5\ngini = 0.291\nsamples = 17\nvalue = [3, 14]"] ;
100 -> 104 ;
105 [label="X[208] <= 0.5\ngini = 0.219\nsamples = 16\nvalue = [2, 14]"] ;
104 -> 105 ;
106 [label="X[856] <= 0.5\ngini = 0.124\nsamples = 15\nvalue = [1, 14]"] ;
105 -> 106 ;
107 [label="gini = 0.0\nsamples = 14\nvalue = [0, 14]"] ;
106 -> 107 ;
108 [label="gini = 0.0\nsamples = 1\nvalue = [1, 0]"] ;
106 -> 108 ;
109 [label="gini = 0.0\nsamples = 1\nvalue = [1, 0]"] ;
105 -> 109 ;
110 [label="gini = 0.0\nsamples = 1\nvalue = [1, 0]"] ;
104 -> 110 ;
111 [label="X[5] <= 29.85\ngini = 0.346\nsamples = 9\nvalue = [7, 2]"] ;
99 -> 111 ;
112 [label="gini = 0.0\nsamples = 2\nvalue = [0, 2]"] ;
111 -> 112 ;
113 [label="gini = 0.0\nsamples = 7\nvalue = [7, 0]"] ;
111 -> 113 ;
114 [label="X[979] <= 0.5\ngini = 0.251\nsamples = 374\nvalue = [319, 55]"] ;
68 -> 114 ;
115 [label="X[1136] <= 0.5\ngini = 0.239\nsamples = 368\nvalue = [317, 51]"] ;
114 -> 115 ;
116 [label="X[1461] <= 0.5\ngini = 0.232\nsamples = 366\nvalue = [317, 49]"] ;
115 -> 116 ;
117 [label="X[1721] <= 0.5\ngini = 0.225\nsamples = 364\nvalue = [317, 47]"] ;
116 -> 117 ;
118 [label="X[1523] <= 0.5\ngini = 0.218\nsamples = 361\nvalue = [316, 45]"] ;
117 -> 118 ;
119 [label="X[798] <= 0.5\ngini = 0.215\nsamples = 360\nvalue = [316, 44]"] ;
118 -> 119 ;
120 [label="X[2] <= 32.25\ngini = 0.211\nsamples = 359\nvalue = [316, 43]"] ;
119 -> 120 ;
121 [label="X[68] <= 0.5\ngini = 0.251\nsamples = 272\nvalue = [232, 40]"] ;
120 -> 121 ;
122 [label="X[743] <= 0.5\ngini = 0.246\nsamples = 271\nvalue = [232, 39]"] ;
121 -> 122 ;
123 [label="X[522] <= 0.5\ngini = 0.242\nsamples = 270\nvalue = [232, 38]"] ;
122 -> 123 ;
124 [label="X[555] <= 0.5\ngini = 0.237\nsamples = 269\nvalue = [232, 37]"] ;
123 -> 124 ;
125 [label="X[1314] <= 0.5\ngini = 0.233\nsamples = 268\nvalue = [232, 36]"] ;
124 -> 125 ;
126 [label="X[413] <= 0.5\ngini = 0.228\nsamples = 267\nvalue = [232, 35]"] ;
125 -> 126 ;
127 [label="X[35] <= 0.5\ngini = 0.223\nsamples = 266\nvalue = [232, 34]"] ;
126 -> 127 ;
128 [label="X[579] <= 0.5\ngini = 0.218\nsamples = 265\nvalue = [232, 33]"] ;
127 -> 128 ;
129 [label="X[1300] <= 0.5\ngini = 0.213\nsamples = 264\nvalue = [232, 32]"] ;
128 -> 129 ;
130 [label="X[823] <= 0.5\ngini = 0.208\nsamples = 263\nvalue = [232, 31]"] ;
129 -> 130 ;
131 [label="X[1237] <= 0.5\ngini = 0.203\nsamples = 262\nvalue = [232, 30]"] ;
130 -> 131 ;
132 [label="X[524] <= 0.5\ngini = 0.198\nsamples = 261\nvalue = [232, 29]"] ;
131 -> 132 ;
133 [label="X[565] <= 0.5\ngini = 0.192\nsamples = 260\nvalue = [232, 28]"] ;
132 -> 133 ;
134 [label="X[1073] <= 0.5\ngini = 0.187\nsamples = 259\nvalue = [232, 27]"] ;
133 -> 134 ;
135 [label="X[1561] <= 0.5\ngini = 0.181\nsamples = 258\nvalue = [232, 26]"] ;
134 -> 135 ;
136 [label="X[1432] <= 0.5\ngini = 0.176\nsamples = 257\nvalue = [232, 25]"] ;
135 -> 136 ;
137 [label="X[1101] <= 0.5\ngini = 0.17\nsamples = 256\nvalue = [232, 24]"] ;
136 -> 137 ;
138 [label="X[1440] <= 0.5\ngini = 0.164\nsamples = 255\nvalue = [232, 23]"] ;
137 -> 138 ;
139 [label="X[1132] <= 0.5\ngini = 0.158\nsamples = 254\nvalue = [232, 22]"] ;
138 -> 139 ;
140 [label="X[15] <= 0.5\ngini = 0.152\nsamples = 253\nvalue = [232, 21]"] ;
139 -> 140 ;
141 [label="X[1560] <= 0.5\ngini = 0.146\nsamples = 252\nvalue = [232, 20]"] ;
140 -> 141 ;
142 [label="X[1695] <= 0.5\ngini = 0.14\nsamples = 251\nvalue = [232, 19]"] ;
141 -> 142 ;
143 [label="X[1070] <= 0.5\ngini = 0.134\nsamples = 250\nvalue = [232, 18]"] ;
142 -> 143 ;
144 [label="X[209] <= 0.5\ngini = 0.127\nsamples = 249\nvalue = [232, 17]"] ;
143 -> 144 ;
145 [label="X[82] <= 0.5\ngini = 0.121\nsamples = 248\nvalue = [232, 16]"] ;
144 -> 145 ;
146 [label="X[201] <= 0.5\ngini = 0.114\nsamples = 247\nvalue = [232, 15]"] ;
145 -> 146 ;
147 [label="X[214] <= 0.5\ngini = 0.107\nsamples = 246\nvalue = [232, 14]"] ;
146 -> 147 ;
148 [label="X[1278] <= 0.5\ngini = 0.1\nsamples = 245\nvalue = [232, 13]"] ;
147 -> 148 ;
149 [label="X[594] <= 0.5\ngini = 0.094\nsamples = 244\nvalue = [232, 12]"] ;
148 -> 149 ;
150 [label="X[537] <= 0.5\ngini = 0.086\nsamples = 243\nvalue = [232, 11]"] ;
149 -> 150 ;
151 [label="X[628] <= 0.5\ngini = 0.079\nsamples = 242\nvalue = [232, 10]"] ;
150 -> 151 ;
152 [label="X[1559] <= 0.5\ngini = 0.072\nsamples = 241\nvalue = [232, 9]"] ;
151 -> 152 ;
153 [label="X[658] <= 0.5\ngini = 0.064\nsamples = 240\nvalue = [232, 8]"] ;
152 -> 153 ;
154 [label="X[327] <= 0.5\ngini = 0.057\nsamples = 239\nvalue = [232, 7]"] ;
153 -> 154 ;
155 [label="X[48] <= 0.5\ngini = 0.049\nsamples = 238\nvalue = [232, 6]"] ;
154 -> 155 ;
156 [label="X[873] <= 0.5\ngini = 0.041\nsamples = 237\nvalue = [232, 5]"] ;
155 -> 156 ;
157 [label="X[1168] <= 0.5\ngini = 0.033\nsamples = 236\nvalue = [232, 4]"] ;
156 -> 157 ;
158 [label="X[1552] <= 0.5\ngini = 0.025\nsamples = 235\nvalue = [232, 3]"] ;
157 -> 158 ;
159 [label="X[1398] <= 0.5\ngini = 0.017\nsamples = 234\nvalue = [232, 2]"] ;
158 -> 159 ;
160 [label="X[509] <= 0.5\ngini = 0.009\nsamples = 233\nvalue = [232, 1]"] ;
159 -> 160 ;
161 [label="gini = 0.0\nsamples = 232\nvalue = [232, 0]"] ;
160 -> 161 ;
162 [label="gini = 0.0\nsamples = 1\nvalue = [0, 1]"] ;
160 -> 162 ;
163 [label="gini = 0.0\nsamples = 1\nvalue = [0, 1]"] ;
159 -> 163 ;
164 [label="gini = 0.0\nsamples = 1\nvalue = [0, 1]"] ;
158 -> 164 ;
165 [label="gini = 0.0\nsamples = 1\nvalue = [0, 1]"] ;
157 -> 165 ;
166 [label="gini = 0.0\nsamples = 1\nvalue = [0, 1]"] ;
156 -> 166 ;
167 [label="gini = 0.0\nsamples = 1\nvalue = [0, 1]"] ;
155 -> 167 ;
168 [label="gini = 0.0\nsamples = 1\nvalue = [0, 1]"] ;
154 -> 168 ;
169 [label="gini = 0.0\nsamples = 1\nvalue = [0, 1]"] ;
153 -> 169 ;
170 [label="gini = 0.0\nsamples = 1\nvalue = [0, 1]"] ;
152 -> 170 ;
171 [label="gini = 0.0\nsamples = 1\nvalue = [0, 1]"] ;
151 -> 171 ;
172 [label="gini = 0.0\nsamples = 1\nvalue = [0, 1]"] ;
150 -> 172 ;
173 [label="gini = 0.0\nsamples = 1\nvalue = [0, 1]"] ;
149 -> 173 ;
174 [label="gini = 0.0\nsamples = 1\nvalue = [0, 1]"] ;
148 -> 174 ;
175 [label="gini = 0.0\nsamples = 1\nvalue = [0, 1]"] ;
147 -> 175 ;
176 [label="gini = 0.0\nsamples = 1\nvalue = [0, 1]"] ;
146 -> 176 ;
177 [label="gini = 0.0\nsamples = 1\nvalue = [0, 1]"] ;
145 -> 177 ;
178 [label="gini = 0.0\nsamples = 1\nvalue = [0, 1]"] ;
144 -> 178 ;
179 [label="gini = 0.0\nsamples = 1\nvalue = [0, 1]"] ;
143 -> 179 ;
180 [label="gini = 0.0\nsamples = 1\nvalue = [0, 1]"] ;
142 -> 180 ;
181 [label="gini = 0.0\nsamples = 1\nvalue = [0, 1]"] ;
141 -> 181 ;
182 [label="gini = 0.0\nsamples = 1\nvalue = [0, 1]"] ;
140 -> 182 ;
183 [label="gini = 0.0\nsamples = 1\nvalue = [0, 1]"] ;
139 -> 183 ;
184 [label="gini = 0.0\nsamples = 1\nvalue = [0, 1]"] ;
138 -> 184 ;
185 [label="gini = 0.0\nsamples = 1\nvalue = [0, 1]"] ;
137 -> 185 ;
186 [label="gini = 0.0\nsamples = 1\nvalue = [0, 1]"] ;
136 -> 186 ;
187 [label="gini = 0.0\nsamples = 1\nvalue = [0, 1]"] ;
135 -> 187 ;
188 [label="gini = 0.0\nsamples = 1\nvalue = [0, 1]"] ;
134 -> 188 ;
189 [label="gini = 0.0\nsamples = 1\nvalue = [0, 1]"] ;
133 -> 189 ;
190 [label="gini = 0.0\nsamples = 1\nvalue = [0, 1]"] ;
132 -> 190 ;
191 [label="gini = 0.0\nsamples = 1\nvalue = [0, 1]"] ;
131 -> 191 ;
192 [label="gini = 0.0\nsamples = 1\nvalue = [0, 1]"] ;
130 -> 192 ;
193 [label="gini = 0.0\nsamples = 1\nvalue = [0, 1]"] ;
129 -> 193 ;
194 [label="gini = 0.0\nsamples = 1\nvalue = [0, 1]"] ;
128 -> 194 ;
195 [label="gini = 0.0\nsamples = 1\nvalue = [0, 1]"] ;
127 -> 195 ;
196 [label="gini = 0.0\nsamples = 1\nvalue = [0, 1]"] ;
126 -> 196 ;
197 [label="gini = 0.0\nsamples = 1\nvalue = [0, 1]"] ;
125 -> 197 ;
198 [label="gini = 0.0\nsamples = 1\nvalue = [0, 1]"] ;
124 -> 198 ;
199 [label="gini = 0.0\nsamples = 1\nvalue = [0, 1]"] ;
123 -> 199 ;
200 [label="gini = 0.0\nsamples = 1\nvalue = [0, 1]"] ;
122 -> 200 ;
201 [label="gini = 0.0\nsamples = 1\nvalue = [0, 1]"] ;
121 -> 201 ;
202 [label="X[1562] <= 0.5\ngini = 0.067\nsamples = 87\nvalue = [84, 3]"] ;
120 -> 202 ;
203 [label="X[384] <= 0.5\ngini = 0.045\nsamples = 86\nvalue = [84, 2]"] ;
202 -> 203 ;
204 [label="X[86] <= 0.5\ngini = 0.023\nsamples = 85\nvalue = [84, 1]"] ;
203 -> 204 ;
205 [label="gini = 0.0\nsamples = 84\nvalue = [84, 0]"] ;
204 -> 205 ;
206 [label="gini = 0.0\nsamples = 1\nvalue = [0, 1]"] ;
204 -> 206 ;
207 [label="gini = 0.0\nsamples = 1\nvalue = [0, 1]"] ;
203 -> 207 ;
208 [label="gini = 0.0\nsamples = 1\nvalue = [0, 1]"] ;
202 -> 208 ;
209 [label="gini = 0.0\nsamples = 1\nvalue = [0, 1]"] ;
119 -> 209 ;
210 [label="gini = 0.0\nsamples = 1\nvalue = [0, 1]"] ;
118 -> 210 ;
211 [label="X[0] <= 171.5\ngini = 0.444\nsamples = 3\nvalue = [1, 2]"] ;
117 -> 211 ;
212 [label="gini = 0.0\nsamples = 1\nvalue = [1, 0]"] ;
211 -> 212 ;
213 [label="gini = 0.0\nsamples = 2\nvalue = [0, 2]"] ;
211 -> 213 ;
214 [label="gini = 0.0\nsamples = 2\nvalue = [0, 2]"] ;
116 -> 214 ;
215 [label="gini = 0.0\nsamples = 2\nvalue = [0, 2]"] ;
115 -> 215 ;
216 [label="X[459] <= 0.5\ngini = 0.444\nsamples = 6\nvalue = [2, 4]"] ;
114 -> 216 ;
217 [label="X[492] <= 0.5\ngini = 0.32\nsamples = 5\nvalue = [1, 4]"] ;
216 -> 217 ;
218 [label="gini = 0.0\nsamples = 4\nvalue = [0, 4]"] ;
217 -> 218 ;
219 [label="gini = 0.0\nsamples = 1\nvalue = [1, 0]"] ;
217 -> 219 ;
220 [label="gini = 0.0\nsamples = 1\nvalue = [1, 0]"] ;
216 -> 220 ;
}